<?xml version="1.0"?>
<opencv_storage>
<cascade>
  <stageType>BOOST</stageType>
  <featureType>HAAR</featureType>
  <height>24</height>
  <width>24</width>
  <stageParams>
    <boostType>GAB</boostType>
    <minHitRate>9.9500000476837158e-01</minHitRate>
    <maxFalseAlarm>5.0000000000000000e-01</maxFalseAlarm>
    <weightTrimRate>9.4999998807907104e-01</weightTrimRate>
    <maxDepth>1</maxDepth>
    <maxWeakCount>100</maxWeakCount></stageParams>
  <featureParams>
    <maxCatCount>0</maxCatCount>
    <featSize>1</featSize>
    <mode>BASIC</mode></featureParams>
  <stageNum>10</stageNum>
  <stages>
    <!-- stage 0 -->
    <_>
      <maxWeakCount>3</maxWeakCount>
      <stageThreshold>-1.4073146581649780e+00</stageThreshold>
      <weakClassifiers>
        <_>
          <internalNodes>
            0 -1 27 -1.9555401057004929e-02</internalNodes>
          <leafValues>
            4.8051947355270386e-01 -9.7381669282913208e-01</leafValues></_>
        <_>
          <internalNodes>
            0 -1 6 -1.2828001752495766e-02</internalNodes>
          <leafValues>
            4.5021888613700867e-01 -9.6694833040237427e-01</leafValues></_>
        <_>
          <internalNodes>
            0 -1 23 2.2909478284418583e-03</internalNodes>
          <leafValues>
            -8.8371682167053223e-01 6.9670486450195313e-01</leafValues></_></weakClassifiers></_>
    <!-- stage 1 -->
    <_>
      <maxWeakCount>4</maxWeakCount>
      <stageThreshold>-2.1488153934478760e+00</stageThreshold>
      <weakClassifiers>
        <_>
          <internalNodes>
            0 -1 29 2.4481359869241714e-02</internalNodes>
          <leafValues>
            -9.3217056989669800e-01 8.4210526943206787e-01</leafValues></_>
        <_>
          <internalNodes>
            0 -1 34 2.3929022252559662e-02</internalNodes>
          <leafValues>
            -8.5630679130554199e-01 5.5690938234329224e-01</leafValues></_>
        <_>
          <internalNodes>
            0 -1 22 1.9212942570447922e-02</internalNodes>
          <leafValues>
            -8.0657213926315308e-01 5.6440198421478271e-01</leafValues></_>
        <_>
          <internalNodes>
            0 -1 10 -1.0016370564699173e-02</internalNodes>
          <leafValues>
            4.4623404741287231e-01 -9.2993056774139404e-01</leafValues></_></weakClassifiers></_>
    <!-- stage 2 -->
    <_>
      <maxWeakCount>4</maxWeakCount>
      <stageThreshold>-2.1124873161315918e+00</stageThreshold>
      <weakClassifiers>
        <_>
          <internalNodes>
            0 -1 4 -4.4663704931735992e-02</internalNodes>
          <leafValues>
            7.0370370149612427e-01 -9.5275592803955078e-01</leafValues></_>
        <_>
          <internalNodes>
            0 -1 13 -3.0995581299066544e-02</internalNodes>
          <leafValues>
            2.9794809222221375e-01 -9.2853909730911255e-01</leafValues></_>
        <_>
          <internalNodes>
            0 -1 28 -3.4072725102305412e-03</internalNodes>
          <leafValues>
            5.7257229089736938e-01 -8.0348861217498779e-01</leafValues></_>
        <_>
          <internalNodes>
            0 -1 24 6.4238598570227623e-03</internalNodes>
          <leafValues>
            -7.8700071573257446e-01 5.7229626178741455e-01</leafValues></_></weakClassifiers></_>
    <!-- stage 3 -->
    <_>
      <maxWeakCount>4</maxWeakCount>
      <stageThreshold>-1.8314977884292603e+00</stageThreshold>
      <weakClassifiers>
        <_>
          <internalNodes>
            0 -1 25 -2.8944645076990128e-02</internalNodes>
          <leafValues>
            4.5098039507865906e-01 -9.3523061275482178e-01</leafValues></_>
        <_>
          <internalNodes>
            0 -1 17 1.0685432702302933e-02</internalNodes>
          <leafValues>
            -8.2041043043136597e-01 5.2564257383346558e-01</leafValues></_>
        <_>
          <internalNodes>
            0 -1 9 4.4150605797767639e-02</internalNodes>
          <leafValues>
            -6.4230823516845703e-01 7.3835271596908569e-01</leafValues></_>
        <_>
          <internalNodes>
            0 -1 32 4.4395839795470238e-03</internalNodes>
          <leafValues>
            -7.5308406352996826e-01 5.6645148992538452e-01</leafValues></_></weakClassifiers></_>
    <!-- stage 4 -->
    <_>
      <maxWeakCount>4</maxWeakCount>
      <stageThreshold>-1.5781105756759644e+00</stageThreshold>
      <weakClassifiers>
        <_>
          <internalNodes>
            0 -1 14 1.2774594128131866e-01</internalNodes>
          <leafValues>
            -9.2441862821578979e-01 6.3157892227172852e-01</leafValues></_>
        <_>
          <internalNodes>
            0 -1 12 6.5667256712913513e-03</internalNodes>
          <leafValues>
            -7.6078313589096069e-01 7.7837175130844116e-01</leafValues></_>
        <_>
          <internalNodes>
            0 -1 26 -1.3032624498009682e-02</internalNodes>
          <leafValues>
            5.9451919794082642e-01 -6.5589416027069092e-01</leafValues></_>
        <_>
          <internalNodes>
            0 -1 36 3.0064130201935768e-02</internalNodes>
          <leafValues>
            -4.8742797970771790e-01 8.3935773372650146e-01</leafValues></_></weakClassifiers></_>
    <!-- stage 5 -->
    <_>
      <maxWeakCount>3</maxWeakCount>
      <stageThreshold>-1.4032456874847412e+00</stageThreshold>
      <weakClassifiers>
        <_>
          <internalNodes>
            0 -1 8 7.0333048701286316e-02</internalNodes>
          <leafValues>
            -9.5344132184982300e-01 1.4634145796298981e-01</leafValues></_>
        <_>
          <internalNodes>
            0 -1 0 -1.3445576652884483e-02</internalNodes>
          <leafValues>
            3.0725076794624329e-01 -8.6609619855880737e-01</leafValues></_>
        <_>
          <internalNodes>
            0 -1 30 -4.5647975057363510e-03</internalNodes>
          <leafValues>
            4.9229970574378967e-01 -6.8349099159240723e-01</leafValues></_></weakClassifiers></_>
    <!-- stage 6 -->
    <_>
      <maxWeakCount>4</maxWeakCount>
      <stageThreshold>-2.1653070449829102e+00</stageThreshold>
      <weakClassifiers>
        <_>
          <internalNodes>
            0 -1 3 5.6579194962978363e-02</internalNodes>
          <leafValues>
            -9.2549020051956177e-01 2.8000000119209290e-01</leafValues></_>
        <_>
          <internalNodes>
            0 -1 20 1.9957464188337326e-02</internalNodes>
          <leafValues>
            -8.1546598672866821e-01 2.8818795084953308e-01</leafValues></_>
        <_>
          <internalNodes>
            0 -1 33 2.1610822528600693e-02</internalNodes>
          <leafValues>
            -7.2950094938278198e-01 4.1725295782089233e-01</leafValues></_>
        <_>
          <internalNodes>
            0 -1 16 -1.4028705190867186e-03</internalNodes>
          <leafValues>
            -9.7182816267013550e-01 3.0515015125274658e-01</leafValues></_></weakClassifiers></_>
    <!-- stage 7 -->
    <_>
      <maxWeakCount>3</maxWeakCount>
      <stageThreshold>-1.6268323659896851e+00</stageThreshold>
      <weakClassifiers>
        <_>
          <internalNodes>
            0 -1 11 3.0984107404947281e-02</internalNodes>
          <leafValues>
            -9.3800002336502075e-01 1.1428571492433548e-01</leafValues></_>
        <_>
          <internalNodes>
            0 -1 31 -1.0016506537795067e-02</internalNodes>
          <leafValues>
            2.8586515784263611e-01 -8.4057468175888062e-01</leafValues></_>
        <_>
          <internalNodes>
            0 -1 15 1.3465755619108677e-03</internalNodes>
          <leafValues>
            2.2543621063232422e-01 -9.0054339170455933e-01</leafValues></_></weakClassifiers></_>
    <!-- stage 8 -->
    <_>
      <maxWeakCount>3</maxWeakCount>
      <stageThreshold>-1.5651847124099731e+00</stageThreshold>
      <weakClassifiers>
        <_>
          <internalNodes>
            0 -1 21 -2.4217680096626282e-02</internalNodes>
          <leafValues>
            1.4285714924335480e-01 -9.2504930496215820e-01</leafValues></_>
        <_>
          <internalNodes>
            0 -1 35 1.5925915911793709e-02</internalNodes>
          <leafValues>
            -7.5707018375396729e-01 4.1104975342750549e-01</leafValues></_>
        <_>
          <internalNodes>
            0 -1 7 4.3792058713734150e-03</internalNodes>
          <leafValues>
            -9.5097166299819946e-01 2.9698836803436279e-01</leafValues></_></weakClassifiers></_>
    <!-- stage 9 -->
    <_>
      <maxWeakCount>5</maxWeakCount>
      <stageThreshold>-1.8816502094268799e+00</stageThreshold>
      <weakClassifiers>
        <_>
          <internalNodes>
            0 -1 19 2.3546759039163589e-02</internalNodes>
          <leafValues>
            -9.4588971138000488e-01 -1.9266055524349213e-01</leafValues></_>
        <_>
          <internalNodes>
            0 -1 5 6.5026715397834778e-02</internalNodes>
          <leafValues>
            -8.0000984668731689e-01 2.7988079190254211e-01</leafValues></_>
        <_>
          <internalNodes>
            0 -1 18 4.1280398145318031e-03</internalNodes>
          <leafValues>
            -7.0533210039138794e-01 4.2915147542953491e-01</leafValues></_>
        <_>
          <internalNodes>
            0 -1 1 -1.3463814684655517e-04</internalNodes>
          <leafValues>
            -9.8599785566329956e-01 2.8918260335922241e-01</leafValues></_>
        <_>
          <internalNodes>
            0 -1 2 -2.0126434974372387e-03</internalNodes>
          <leafValues>
            3.0653262138366699e-01 -8.5408478975296021e-01</leafValues></_></weakClassifiers></_></stages>
  <features>
    <_>
      <rects>
        <_>
          1 17 8 4 -1.</_>
        <_>
          1 17 4 2 2.</_>
        <_>
          5 19 4 2 2.</_></rects>
      <tilted>0</tilted></_>
    <_>
      <rects>
        <_>
          2 0 1 4 -1.</_>
        <_>
          2 2 1 2 2.</_></rects>
      <tilted>0</tilted></_>
    <_>
      <rects>
        <_>
          2 0 9 6 -1.</_>
        <_>
          5 0 3 6 3.</_></rects>
      <tilted>0</tilted></_>
    <_>
      <rects>
        <_>
          2 1 12 6 -1.</_>
        <_>
          2 1 6 3 2.</_>
        <_>
          8 4 6 3 2.</_></rects>
      <tilted>0</tilted></_>
    <_>
      <rects>
        <_>
          2 17 10 6 -1.</_>
        <_>
          2 17 5 3 2.</_>
        <_>
          7 20 5 3 2.</_></rects>
      <tilted>0</tilted></_>
    <_>
      <rects>
        <_>
          4 4 15 6 -1.</_>
        <_>
          4 6 15 2 3.</_></rects>
      <tilted>0</tilted></_>
    <_>
      <rects>
        <_>
          4 5 8 6 -1.</_>
        <_>
          4 5 4 3 2.</_>
        <_>
          8 8 4 3 2.</_></rects>
      <tilted>0</tilted></_>
    <_>
      <rects>
        <_>
          4 7 2 9 -1.</_>
        <_>
          4 10 2 3 3.</_></rects>
      <tilted>0</tilted></_>
    <_>
      <rects>
        <_>
          4 10 10 10 -1.</_>
        <_>
          4 10 5 5 2.</_>
        <_>
          9 15 5 5 2.</_></rects>
      <tilted>0</tilted></_>
    <_>
      <rects>
        <_>
          6 4 9 6 -1.</_>
        <_>
          6 6 9 2 3.</_></rects>
      <tilted>0</tilted></_>
    <_>
      <rects>
        <_>
          6 8 4 8 -1.</_>
        <_>
          8 8 2 8 2.</_></rects>
      <tilted>0</tilted></_>
    <_>
      <rects>
        <_>
          7 3 4 6 -1.</_>
        <_>
          7 5 4 2 3.</_></rects>
      <tilted>0</tilted></_>
    <_>
      <rects>
        <_>
          7 16 2 2 -1.</_>
        <_>
          7 17 2 1 2.</_></rects>
      <tilted>0</tilted></_>
    <_>
      <rects>
        <_>
          8 10 9 9 -1.</_>
        <_>
          8 13 9 3 3.</_></rects>
      <tilted>0</tilted></_>
    <_>
      <rects>
        <_>
          8 13 9 9 -1.</_>
        <_>
          8 16 9 3 3.</_></rects>
      <tilted>0</tilted></_>
    <_>
      <rects>
        <_>
          10 0 6 3 -1.</_>
        <_>
          12 0 2 3 3.</_></rects>
      <tilted>0</tilted></_>
    <_>
      <rects>
        <_>
          10 0 6 7 -1.</_>
        <_>
          12 0 2 7 3.</_></rects>
      <tilted>0</tilted></_>
    <_>
      <rects>
        <_>
          10 3 2 10 -1.</_>
        <_>
          10 3 1 5 2.</_>
        <_>
          11 8 1 5 2.</_></rects>
      <tilted>0</tilted></_>
    <_>
      <rects>
        <_>
          10 5 2 6 -1.</_>
        <_>
          10 5 1 3 2.</_>
        <_>
          11 8 1 3 2.</_></rects>
      <tilted>0</tilted></_>
    <_>
      <rects>
        <_>
          10 7 2 11 -1.</_>
        <_>
          11 7 1 11 2.</_></rects>
      <tilted>0</tilted></_>
    <_>
      <rects>
        <_>
          10 7 2 13 -1.</_>
        <_>
          11 7 1 13 2.</_></rects>
      <tilted>0</tilted></_>
    <_>
      <rects>
        <_>
          10 8 2 16 -1.</_>
        <_>
          10 8 1 8 2.</_>
        <_>
          11 16 1 8 2.</_></rects>
      <tilted>0</tilted></_>
    <_>
      <rects>
        <_>
          10 8 3 13 -1.</_>
        <_>
          11 8 1 13 3.</_></rects>
      <tilted>0</tilted></_>
    <_>
      <rects>
        <_>
          10 14 2 2 -1.</_>
        <_>
          11 14 1 2 2.</_></rects>
      <tilted>0</tilted></_>
    <_>
      <rects>
        <_>
          11 18 6 6 -1.</_>
        <_>
          11 18 3 3 2.</_>
        <_>
          14 21 3 3 2.</_></rects>
      <tilted>0</tilted></_>
    <_>
      <rects>
        <_>
          12 2 10 4 -1.</_>
        <_>
          12 2 5 2 2.</_>
        <_>
          17 4 5 2 2.</_></rects>
      <tilted>0</tilted></_>
    <_>
      <rects>
        <_>
          12 6 3 7 -1.</_>
        <_>
          13 6 1 7 3.</_></rects>
      <tilted>0</tilted></_>
    <_>
      <rects>
        <_>
          12 9 3 10 -1.</_>
        <_>
          13 9 1 10 3.</_></rects>
      <tilted>0</tilted></_>
    <_>
      <rects>
        <_>
          12 14 2 2 -1.</_>
        <_>
          13 14 1 2 2.</_></rects>
      <tilted>0</tilted></_>
    <_>
      <rects>
        <_>
          13 12 1 12 -1.</_>
        <_>
          13 16 1 4 3.</_></rects>
      <tilted>0</tilted></_>
    <_>
      <rects>
        <_>
          14 2 5 2 -1.</_>
        <_>
          14 3 5 1 2.</_></rects>
      <tilted>0</tilted></_>
    <_>
      <rects>
        <_>
          14 11 1 9 -1.</_>
        <_>
          14 14 1 3 3.</_></rects>
      <tilted>0</tilted></_>
    <_>
      <rects>
        <_>
          14 11 3 8 -1.</_>
        <_>
          15 11 1 8 3.</_></rects>
      <tilted>0</tilted></_>
    <_>
      <rects>
        <_>
          14 16 8 6 -1.</_>
        <_>
          14 16 4 3 2.</_>
        <_>
          18 19 4 3 2.</_></rects>
      <tilted>0</tilted></_>
    <_>
      <rects>
        <_>
          15 15 6 8 -1.</_>
        <_>
          15 15 3 4 2.</_>
        <_>
          18 19 3 4 2.</_></rects>
      <tilted>0</tilted></_>
    <_>
      <rects>
        <_>
          17 15 4 6 -1.</_>
        <_>
          17 15 2 3 2.</_>
        <_>
          19 18 2 3 2.</_></rects>
      <tilted>0</tilted></_>
    <_>
      <rects>
        <_>
          18 14 6 5 -1.</_>
        <_>
          21 14 3 5 2.</_></rects>
      <tilted>0</tilted></_></features></cascade>
</opencv_storage>
